{
  "levels": [
    {
      "inputs": [0, 0, 0, 0.16774806089224936, 0.549588496215775],
      "outputs": [0, 1, 1, 0, 1, 1],
      "biases": [
        0.3650981905336194, -0.165574265463374, -0.4634655636391439,
        0.6151912021297716, -0.5672302961402543, -0.4624532462014221
      ],
      "weights": [
        [
          0.39290894677037197, 0.7206555438354815, -0.8725831373239661,
          0.5295992367371, 0.7634382680180579, 0.3413165761785458
        ],
        [
          0.7714648000829354, -0.4578502861583685, -0.307305851050816,
          0.6730880425001398, 0.4392561964271829, -0.38799218239492683
        ],
        [
          0.482496927974128, -0.7133237377065283, 0.5953718623081444,
          -0.7510280732270127, 0.6984924178615719, 0.025293203694102186
        ],
        [
          0.19306098558941037, 0.452426560865888, -0.018873874110166347,
          0.5995645731552975, -0.5025332012766154, 0.015996595615908868
        ],
        [
          -0.4834102254662507, -0.1770250440661063, 0.7371393677758629,
          -0.6836711712019515, -0.8101554171749674, 0.6068024437870176
        ]
      ]
    },
    {
      "inputs": [0, 1, 1, 0, 1, 1],
      "outputs": [1, 0, 0, 0],
      "biases": [
        -0.5219205646960047, 0.06456404738131336, -0.4584088215196875,
        0.7655548102391848
      ],
      "weights": [
        [
          0.787434197362714, -0.5310355732898941, 0.7086507128713633,
          0.5260077106895045
        ],
        [
          0.4792685184984626, -0.43719037051862986, -0.3378103666934908,
          -0.283961263150489
        ],
        [
          0.3126661234853942, 0.4327298151393975, -0.5726848285718877,
          -0.13710243945481987
        ],
        [
          0.4587932938964917, -0.1846967821381117, 0.7161606569868878,
          0.16234222191780173
        ],
        [
          0.7357720649682378, -0.4736657947255868, -0.22967262172384018,
          -0.009541735651061216
        ],
        [
          -0.17645998880087266, 0.4372342136903862, -0.17003980748823666,
          -0.5893336525654639
        ]
      ]
    }
  ]
}
